digraph Tree {
node [shape=box, style="filled, rounded", color="black", fontname=helvetica] ;
edge [fontname=helvetica] ;
0 [label=<X<SUB>0</SUB> &le; 4.315<br/>entropy = 1.0<br/>samples = 600<br/>value = [302, 298]>, fillcolor="#fffdfc"] ;
1 [label=<X<SUB>1</SUB> &le; 4.361<br/>entropy = 0.99<br/>samples = 532<br/>value = [235, 297]>, fillcolor="#d6ebfa"] ;
0 -> 1 [labeldistance=2.5, labelangle=45, headlabel="True"] ;
2 [label=<X<SUB>0</SUB> &le; 1.57<br/>entropy = 0.96<br/>samples = 480<br/>value = [184, 296]>, fillcolor="#b4daf5"] ;
1 -> 2 ;
3 [label=<entropy = 0.917<br/>samples = 199<br/>value = [133, 66]>, fillcolor="#f2c09b"] ;
2 -> 3 ;
4 [label=<entropy = 0.683<br/>samples = 281<br/>value = [51, 230]>, fillcolor="#65b3eb"] ;
2 -> 4 ;
5 [label=<X<SUB>0</SUB> &le; -1.368<br/>entropy = 0.137<br/>samples = 52<br/>value = [51, 1]>, fillcolor="#e6833d"] ;
1 -> 5 ;
6 [label=<entropy = 0.0<br/>samples = 1<br/>value = [0, 1]>, fillcolor="#399de5"] ;
5 -> 6 ;
7 [label=<entropy = 0.0<br/>samples = 51<br/>value = [51, 0]>, fillcolor="#e58139"] ;
5 -> 7 ;
8 [label=<X<SUB>0</SUB> &le; 4.384<br/>entropy = 0.111<br/>samples = 68<br/>value = [67, 1]>, fillcolor="#e5833c"] ;
0 -> 8 [labeldistance=2.5, labelangle=-45, headlabel="False"] ;
9 [label=<X<SUB>0</SUB> &le; 4.377<br/>entropy = 0.544<br/>samples = 8<br/>value = [7, 1]>, fillcolor="#e99355"] ;
8 -> 9 ;
10 [label=<entropy = 0.0<br/>samples = 7<br/>value = [7, 0]>, fillcolor="#e58139"] ;
9 -> 10 ;
11 [label=<entropy = 0.0<br/>samples = 1<br/>value = [0, 1]>, fillcolor="#399de5"] ;
9 -> 11 ;
12 [label=<entropy = 0.0<br/>samples = 60<br/>value = [60, 0]>, fillcolor="#e58139"] ;
8 -> 12 ;
}